digraph Tree {
node [shape=box, style="filled, rounded", color="black", fontname="helvetica"] ;
edge [fontname="helvetica"] ;
0 [label="petal width (cm) <= 0.8\ngini = 0.67\nsamples = 103\nvalue = [46, 50, 54]\nclass = virginica", fillcolor="#faf7fe"] ;
1 [label="gini = 0.0\nsamples = 32\nvalue = [46, 0, 0]\nclass = setosa", fillcolor="#e58139"] ;
0 -> 1 [labeldistance=2.5, labelangle=45, headlabel="True"] ;
2 [label="petal width (cm) <= 1.75\ngini = 0.5\nsamples = 71\nvalue = [0, 50, 54]\nclass = virginica", fillcolor="#f6f0fd"] ;
0 -> 2 [labeldistance=2.5, labelangle=-45, headlabel="False"] ;
3 [label="petal width (cm) <= 1.35\ngini = 0.17\nsamples = 40\nvalue = [0, 50, 5]\nclass = versicolor", fillcolor="#4de88e"] ;
2 -> 3 ;
4 [label="gini = 0.0\nsamples = 22\nvalue = [0, 27, 0]\nclass = versicolor", fillcolor="#39e581"] ;
3 -> 4 ;
5 [label="petal length (cm) <= 5.05\ngini = 0.29\nsamples = 18\nvalue = [0, 23, 5]\nclass = versicolor", fillcolor="#64eb9c"] ;
3 -> 5 ;
6 [label="gini = 0.0\nsamples = 15\nvalue = [0, 23, 0]\nclass = versicolor", fillcolor="#39e581"] ;
5 -> 6 ;
7 [label="gini = 0.0\nsamples = 3\nvalue = [0, 0, 5]\nclass = virginica", fillcolor="#8139e5"] ;
5 -> 7 ;
8 [label="gini = 0.0\nsamples = 31\nvalue = [0, 0, 49]\nclass = virginica", fillcolor="#8139e5"] ;
2 -> 8 ;
}